<?xml version="1.0"?>
<opencv_storage>
<cascade>
  <stageType>BOOST</stageType>
  <featureType>HAAR</featureType>
  <height>26</height>
  <width>24</width>
  <stageParams>
    <boostType>GAB</boostType>
    <minHitRate>9.9500000476837158e-01</minHitRate>
    <maxFalseAlarm>5.0000000000000000e-01</maxFalseAlarm>
    <weightTrimRate>9.4999999999999996e-01</weightTrimRate>
    <maxDepth>1</maxDepth>
    <maxWeakCount>100</maxWeakCount></stageParams>
  <featureParams>
    <maxCatCount>0</maxCatCount>
    <featSize>1</featSize>
    <mode>BASIC</mode></featureParams>
  <stageNum>13</stageNum>
  <stages>
    <!-- stage 0 -->
    <_>
      <maxWeakCount>2</maxWeakCount>
      <stageThreshold>-2.6612356305122375e-01</stageThreshold>
      <weakClassifiers>
        <_>
          <internalNodes>
            0 -1 20 2.1983331069350243e-02</internalNodes>
          <leafValues>
            -7.8947371244430542e-01 7.1428573131561279e-01</leafValues></_>
        <_>
          <internalNodes>
            0 -1 12 -9.0951532125473022e-02</internalNodes>
          <leafValues>
            -9.8040926456451416e-01 5.3714162111282349e-01</leafValues></_></weakClassifiers></_>
    <!-- stage 1 -->
    <_>
      <maxWeakCount>4</maxWeakCount>
      <stageThreshold>-2.1486841142177582e-01</stageThreshold>
      <weakClassifiers>
        <_>
          <internalNodes>
            0 -1 17 -1.2022269889712334e-02</internalNodes>
          <leafValues>
            6.0344827175140381e-01 -8.3333331346511841e-01</leafValues></_>
        <_>
          <internalNodes>
            0 -1 43 2.9226202517747879e-02</internalNodes>
          <leafValues>
            -4.6964347362518311e-01 1.</leafValues></_>
        <_>
          <internalNodes>
            0 -1 59 4.2605533963069320e-04</internalNodes>
          <leafValues>
            -8.3945870399475098e-01 5.9283488988876343e-01</leafValues></_>
        <_>
          <internalNodes>
            0 -1 6 -9.1305356472730637e-03</internalNodes>
          <leafValues>
            4.9527350068092346e-01 -9.2270714044570923e-01</leafValues></_></weakClassifiers></_>
    <!-- stage 2 -->
    <_>
      <maxWeakCount>3</maxWeakCount>
      <stageThreshold>-9.4161307811737061e-01</stageThreshold>
      <weakClassifiers>
        <_>
          <internalNodes>
            0 -1 27 8.8381394743919373e-04</internalNodes>
          <leafValues>
            4.3703705072402954e-01 -9.0769231319427490e-01</leafValues></_>
        <_>
          <internalNodes>
            0 -1 42 3.0090376734733582e-02</internalNodes>
          <leafValues>
            -5.1090002059936523e-01 8.9776122570037842e-01</leafValues></_>
        <_>
          <internalNodes>
            0 -1 7 -9.2085369396954775e-04</internalNodes>
          <leafValues>
            -9.5335918664932251e-01 4.7697925567626953e-01</leafValues></_></weakClassifiers></_>
    <!-- stage 3 -->
    <_>
      <maxWeakCount>4</maxWeakCount>
      <stageThreshold>-4.4096451997756958e-01</stageThreshold>
      <weakClassifiers>
        <_>
          <internalNodes>
            0 -1 7 9.0405921218916774e-04</internalNodes>
          <leafValues>
            4.5038166642189026e-01 -8.5507243871688843e-01</leafValues></_>
        <_>
          <internalNodes>
            0 -1 41 3.5124707967042923e-02</internalNodes>
          <leafValues>
            -4.8701944947242737e-01 9.2559659481048584e-01</leafValues></_>
        <_>
          <internalNodes>
            0 -1 51 -2.2375534172169864e-04</internalNodes>
          <leafValues>
            4.7161263227462769e-01 -8.8043010234832764e-01</leafValues></_>
        <_>
          <internalNodes>
            0 -1 64 -3.3522740704938769e-04</internalNodes>
          <leafValues>
            4.7610336542129517e-01 -8.1815373897552490e-01</leafValues></_></weakClassifiers></_>
    <!-- stage 4 -->
    <_>
      <maxWeakCount>4</maxWeakCount>
      <stageThreshold>-2.3190006613731384e-02</stageThreshold>
      <weakClassifiers>
        <_>
          <internalNodes>
            0 -1 26 -3.2457970082759857e-02</internalNodes>
          <leafValues>
            8.9830505847930908e-01 -3.7588652968406677e-01</leafValues></_>
        <_>
          <internalNodes>
            0 -1 45 -3.4410271793603897e-02</internalNodes>
          <leafValues>
            9.2893809080123901e-01 -3.9804306626319885e-01</leafValues></_>
        <_>
          <internalNodes>
            0 -1 23 7.6648742833640426e-05</internalNodes>
          <leafValues>
            -9.2467349767684937e-01 4.7892925143241882e-01</leafValues></_>
        <_>
          <internalNodes>
            0 -1 2 4.9818536353996024e-05</internalNodes>
          <leafValues>
            -7.9976433515548706e-01 4.0122148394584656e-01</leafValues></_></weakClassifiers></_>
    <!-- stage 5 -->
    <_>
      <maxWeakCount>3</maxWeakCount>
      <stageThreshold>-1.3133338093757629e-01</stageThreshold>
      <weakClassifiers>
        <_>
          <internalNodes>
            0 -1 5 7.0006103487685323e-04</internalNodes>
          <leafValues>
            4.1791045665740967e-01 -8.4848487377166748e-01</leafValues></_>
        <_>
          <internalNodes>
            0 -1 25 1.0839125607162714e-03</internalNodes>
          <leafValues>
            -9.7485369443893433e-01 3.7251421809196472e-01</leafValues></_>
        <_>
          <internalNodes>
            0 -1 73 1.0107113048434258e-03</internalNodes>
          <leafValues>
            4.2560982704162598e-01 -8.8412332534790039e-01</leafValues></_></weakClassifiers></_>
    <!-- stage 6 -->
    <_>
      <maxWeakCount>3</maxWeakCount>
      <stageThreshold>-1.6825091093778610e-02</stageThreshold>
      <weakClassifiers>
        <_>
          <internalNodes>
            0 -1 68 -1.4380523934960365e-03</internalNodes>
          <leafValues>
            4.6875000000000000e-01 -8.3333331346511841e-01</leafValues></_>
        <_>
          <internalNodes>
            0 -1 71 -8.7680695287417620e-05</internalNodes>
          <leafValues>
            4.1598847508430481e-01 -8.5212820768356323e-01</leafValues></_>
        <_>
          <internalNodes>
            0 -1 36 -1.4380305947270244e-04</internalNodes>
          <leafValues>
            4.0051978826522827e-01 -7.9975086450576782e-01</leafValues></_></weakClassifiers></_>
    <!-- stage 7 -->
    <_>
      <maxWeakCount>4</maxWeakCount>
      <stageThreshold>-7.0934540033340454e-01</stageThreshold>
      <weakClassifiers>
        <_>
          <internalNodes>
            0 -1 33 -5.0597726367413998e-03</internalNodes>
          <leafValues>
            4.4186046719551086e-01 -8.0281692743301392e-01</leafValues></_>
        <_>
          <internalNodes>
            0 -1 55 -3.0869003385305405e-03</internalNodes>
          <leafValues>
            4.5798033475875854e-01 -6.8823480606079102e-01</leafValues></_>
        <_>
          <internalNodes>
            0 -1 61 -3.5554668866097927e-03</internalNodes>
          <leafValues>
            3.6566758155822754e-01 -7.7956026792526245e-01</leafValues></_>
        <_>
          <internalNodes>
            0 -1 63 3.1867160578258336e-04</internalNodes>
          <leafValues>
            -7.3017644882202148e-01 4.2500758171081543e-01</leafValues></_></weakClassifiers></_>
    <!-- stage 8 -->
    <_>
      <maxWeakCount>5</maxWeakCount>
      <stageThreshold>-1.8512167036533356e-01</stageThreshold>
      <weakClassifiers>
        <_>
          <internalNodes>
            0 -1 74 3.6252051359042525e-04</internalNodes>
          <leafValues>
            -7.2727274894714355e-01 3.5820895433425903e-01</leafValues></_>
        <_>
          <internalNodes>
            0 -1 47 1.9986710976809263e-03</internalNodes>
          <leafValues>
            -5.6655037403106689e-01 4.6354803442955017e-01</leafValues></_>
        <_>
          <internalNodes>
            0 -1 1 -1.2649589916691184e-03</internalNodes>
          <leafValues>
            -7.6234918832778931e-01 3.8277980685234070e-01</leafValues></_>
        <_>
          <internalNodes>
            0 -1 40 -8.8533777743577957e-03</internalNodes>
          <leafValues>
            4.3195840716362000e-01 -6.9231575727462769e-01</leafValues></_>
        <_>
          <internalNodes>
            0 -1 70 -1.7178908456116915e-03</internalNodes>
          <leafValues>
            -7.3418974876403809e-01 4.4778624176979065e-01</leafValues></_></weakClassifiers></_>
    <!-- stage 9 -->
    <_>
      <maxWeakCount>4</maxWeakCount>
      <stageThreshold>-5.7107841968536377e-01</stageThreshold>
      <weakClassifiers>
        <_>
          <internalNodes>
            0 -1 19 5.1878462545573711e-04</internalNodes>
          <leafValues>
            3.6690646409988403e-01 -8.3606559038162231e-01</leafValues></_>
        <_>
          <internalNodes>
            0 -1 30 -5.5869314819574356e-03</internalNodes>
          <leafValues>
            7.4931079149246216e-01 -4.2290350794792175e-01</leafValues></_>
        <_>
          <internalNodes>
            0 -1 78 4.0955521399155259e-04</internalNodes>
          <leafValues>
            3.8452887535095215e-01 -8.7184637784957886e-01</leafValues></_>
        <_>
          <internalNodes>
            0 -1 69 -4.0365647873841226e-04</internalNodes>
          <leafValues>
            -8.2337194681167603e-01 3.8752272725105286e-01</leafValues></_></weakClassifiers></_>
    <!-- stage 10 -->
    <_>
      <maxWeakCount>5</maxWeakCount>
      <stageThreshold>-3.9914450049400330e-01</stageThreshold>
      <weakClassifiers>
        <_>
          <internalNodes>
            0 -1 62 -2.2124612587504089e-04</internalNodes>
          <leafValues>
            4.0740740299224854e-01 -8.4615385532379150e-01</leafValues></_>
        <_>
          <internalNodes>
            0 -1 46 -2.0163308363407850e-03</internalNodes>
          <leafValues>
            5.5552285909652710e-01 -5.2127575874328613e-01</leafValues></_>
        <_>
          <internalNodes>
            0 -1 72 -2.0700670575024560e-05</internalNodes>
          <leafValues>
            3.9524266123771667e-01 -8.2790386676788330e-01</leafValues></_>
        <_>
          <internalNodes>
            0 -1 57 -1.3047771062701941e-04</internalNodes>
          <leafValues>
            2.9194420576095581e-01 -8.8505250215530396e-01</leafValues></_>
        <_>
          <internalNodes>
            0 -1 4 -5.4275998845696449e-03</internalNodes>
          <leafValues>
            -7.5547766685485840e-01 3.8129636645317078e-01</leafValues></_></weakClassifiers></_>
    <!-- stage 11 -->
    <_>
      <maxWeakCount>4</maxWeakCount>
      <stageThreshold>-3.0018499493598938e-01</stageThreshold>
      <weakClassifiers>
        <_>
          <internalNodes>
            0 -1 76 2.6708529912866652e-04</internalNodes>
          <leafValues>
            3.4285715222358704e-01 -8.0000001192092896e-01</leafValues></_>
        <_>
          <internalNodes>
            0 -1 32 -4.2447715532034636e-04</internalNodes>
          <leafValues>
            3.5088288784027100e-01 -7.6771718263626099e-01</leafValues></_>
        <_>
          <internalNodes>
            0 -1 10 -1.4835324691375718e-05</internalNodes>
          <leafValues>
            -6.2251657247543335e-01 5.3844338655471802e-01</leafValues></_>
        <_>
          <internalNodes>
            0 -1 44 -4.5553043484687805e-02</internalNodes>
          <leafValues>
            8.7856262922286987e-01 -3.7140846252441406e-01</leafValues></_></weakClassifiers></_>
    <!-- stage 12 -->
    <_>
      <maxWeakCount>6</maxWeakCount>
      <stageThreshold>-9.3640464544296265e-01</stageThreshold>
      <weakClassifiers>
        <_>
          <internalNodes>
            0 -1 21 4.9738166853785515e-03</internalNodes>
          <leafValues>
            -8.5964912176132202e-01 3.4265735745429993e-01</leafValues></_>
        <_>
          <internalNodes>
            0 -1 81 1.4296581503003836e-04</internalNodes>
          <leafValues>
            3.3733713626861572e-01 -7.2341489791870117e-01</leafValues></_>
        <_>
          <internalNodes>
            0 -1 22 1.4166086912155151e-03</internalNodes>
          <leafValues>
            -7.2607398033142090e-01 3.4988319873809814e-01</leafValues></_>
        <_>
          <internalNodes>
            0 -1 75 1.7519040557090193e-04</internalNodes>
          <leafValues>
            -8.1323575973510742e-01 3.5291507840156555e-01</leafValues></_>
        <_>
          <internalNodes>
            0 -1 14 -6.5504303202033043e-03</internalNodes>
          <leafValues>
            8.0724018812179565e-01 -4.1026544570922852e-01</leafValues></_>
        <_>
          <internalNodes>
            0 -1 8 4.6858760470058769e-05</internalNodes>
          <leafValues>
            3.5412651300430298e-01 -8.7966269254684448e-01</leafValues></_></weakClassifiers></_></stages>
  <features>
    <_>
      <rects>
        <_>
          0 1 1 18 -1.</_>
        <_>
          0 10 1 9 2.</_></rects>
      <tilted>0</tilted></_>
    <_>
      <rects>
        <_>
          0 3 6 16 -1.</_>
        <_>
          2 3 2 16 3.</_></rects>
      <tilted>0</tilted></_>
    <_>
      <rects>
        <_>
          0 4 2 14 -1.</_>
        <_>
          0 4 1 7 2.</_>
        <_>
          1 11 1 7 2.</_></rects>
      <tilted>0</tilted></_>
    <_>
      <rects>
        <_>
          0 4 1 20 -1.</_>
        <_>
          0 14 1 10 2.</_></rects>
      <tilted>0</tilted></_>
    <_>
      <rects>
        <_>
          0 8 9 18 -1.</_>
        <_>
          0 14 9 6 3.</_></rects>
      <tilted>0</tilted></_>
    <_>
      <rects>
        <_>
          0 11 1 14 -1.</_>
        <_>
          0 18 1 7 2.</_></rects>
      <tilted>0</tilted></_>
    <_>
      <rects>
        <_>
          0 12 24 10 -1.</_>
        <_>
          8 12 8 10 3.</_></rects>
      <tilted>0</tilted></_>
    <_>
      <rects>
        <_>
          0 18 4 3 -1.</_>
        <_>
          0 19 4 1 3.</_></rects>
      <tilted>0</tilted></_>
    <_>
      <rects>
        <_>
          0 22 2 2 -1.</_>
        <_>
          0 23 2 1 2.</_></rects>
      <tilted>0</tilted></_>
    <_>
      <rects>
        <_>
          0 25 20 1 -1.</_>
        <_>
          10 25 10 1 2.</_></rects>
      <tilted>0</tilted></_>
    <_>
      <rects>
        <_>
          1 0 6 3 -1.</_>
        <_>
          4 0 3 3 2.</_></rects>
      <tilted>0</tilted></_>
    <_>
      <rects>
        <_>
          1 0 22 20 -1.</_>
        <_>
          12 0 11 20 2.</_></rects>
      <tilted>0</tilted></_>
    <_>
      <rects>
        <_>
          1 0 21 22 -1.</_>
        <_>
          1 11 21 11 2.</_></rects>
      <tilted>0</tilted></_>
    <_>
      <rects>
        <_>
          1 1 2 24 -1.</_>
        <_>
          1 1 1 12 2.</_>
        <_>
          2 13 1 12 2.</_></rects>
      <tilted>0</tilted></_>
    <_>
      <rects>
        <_>
          1 2 23 3 -1.</_>
        <_>
          1 3 23 1 3.</_></rects>
      <tilted>0</tilted></_>
    <_>
      <rects>
        <_>
          2 6 3 1 -1.</_>
        <_>
          3 6 1 1 3.</_></rects>
      <tilted>0</tilted></_>
    <_>
      <rects>
        <_>
          2 6 1 4 -1.</_>
        <_>
          2 8 1 2 2.</_></rects>
      <tilted>0</tilted></_>
    <_>
      <rects>
        <_>
          3 1 18 12 -1.</_>
        <_>
          3 5 18 4 3.</_></rects>
      <tilted>0</tilted></_>
    <_>
      <rects>
        <_>
          3 5 3 2 -1.</_>
        <_>
          4 5 1 2 3.</_></rects>
      <tilted>0</tilted></_>
    <_>
      <rects>
        <_>
          4 0 3 8 -1.</_>
        <_>
          5 0 1 8 3.</_></rects>
      <tilted>0</tilted></_>
    <_>
      <rects>
        <_>
          4 2 15 9 -1.</_>
        <_>
          9 2 5 9 3.</_></rects>
      <tilted>0</tilted></_>
    <_>
      <rects>
        <_>
          4 2 18 18 -1.</_>
        <_>
          4 11 18 9 2.</_></rects>
      <tilted>0</tilted></_>
    <_>
      <rects>
        <_>
          4 4 12 3 -1.</_>
        <_>
          10 4 6 3 2.</_></rects>
      <tilted>0</tilted></_>
    <_>
      <rects>
        <_>
          4 5 1 6 -1.</_>
        <_>
          4 8 1 3 2.</_></rects>
      <tilted>0</tilted></_>
    <_>
      <rects>
        <_>
          4 6 4 12 -1.</_>
        <_>
          4 6 2 6 2.</_>
        <_>
          6 12 2 6 2.</_></rects>
      <tilted>0</tilted></_>
    <_>
      <rects>
        <_>
          5 1 8 9 -1.</_>
        <_>
          9 1 4 9 2.</_></rects>
      <tilted>0</tilted></_>
    <_>
      <rects>
        <_>
          5 9 9 7 -1.</_>
        <_>
          8 9 3 7 3.</_></rects>
      <tilted>0</tilted></_>
    <_>
      <rects>
        <_>
          5 16 13 9 -1.</_>
        <_>
          5 19 13 3 3.</_></rects>
      <tilted>0</tilted></_>
    <_>
      <rects>
        <_>
          6 2 3 4 -1.</_>
        <_>
          7 2 1 4 3.</_></rects>
      <tilted>0</tilted></_>
    <_>
      <rects>
        <_>
          6 12 11 6 -1.</_>
        <_>
          6 14 11 2 3.</_></rects>
      <tilted>0</tilted></_>
    <_>
      <rects>
        <_>
          6 13 10 2 -1.</_>
        <_>
          6 14 10 1 2.</_></rects>
      <tilted>0</tilted></_>
    <_>
      <rects>
        <_>
          6 15 6 1 -1.</_>
        <_>
          8 15 2 1 3.</_></rects>
      <tilted>0</tilted></_>
    <_>
      <rects>
        <_>
          6 16 3 9 -1.</_>
        <_>
          6 19 3 3 3.</_></rects>
      <tilted>0</tilted></_>
    <_>
      <rects>
        <_>
          6 16 14 9 -1.</_>
        <_>
          6 19 14 3 3.</_></rects>
      <tilted>0</tilted></_>
    <_>
      <rects>
        <_>
          6 19 15 3 -1.</_>
        <_>
          6 20 15 1 3.</_></rects>
      <tilted>0</tilted></_>
    <_>
      <rects>
        <_>
          7 9 16 17 -1.</_>
        <_>
          15 9 8 17 2.</_></rects>
      <tilted>0</tilted></_>
    <_>
      <rects>
        <_>
          8 0 1 10 -1.</_>
        <_>
          8 5 1 5 2.</_></rects>
      <tilted>0</tilted></_>
    <_>
      <rects>
        <_>
          8 1 16 25 -1.</_>
        <_>
          16 1 8 25 2.</_></rects>
      <tilted>0</tilted></_>
    <_>
      <rects>
        <_>
          8 4 12 12 -1.</_>
        <_>
          8 10 12 6 2.</_></rects>
      <tilted>0</tilted></_>
    <_>
      <rects>
        <_>
          8 7 12 9 -1.</_>
        <_>
          12 7 4 9 3.</_></rects>
      <tilted>0</tilted></_>
    <_>
      <rects>
        <_>
          8 11 10 15 -1.</_>
        <_>
          8 16 10 5 3.</_></rects>
      <tilted>0</tilted></_>
    <_>
      <rects>
        <_>
          9 4 6 12 -1.</_>
        <_>
          11 4 2 12 3.</_></rects>
      <tilted>0</tilted></_>
    <_>
      <rects>
        <_>
          9 5 6 11 -1.</_>
        <_>
          11 5 2 11 3.</_></rects>
      <tilted>0</tilted></_>
    <_>
      <rects>
        <_>
          9 5 6 13 -1.</_>
        <_>
          11 5 2 13 3.</_></rects>
      <tilted>0</tilted></_>
    <_>
      <rects>
        <_>
          9 5 9 10 -1.</_>
        <_>
          12 5 3 10 3.</_></rects>
      <tilted>0</tilted></_>
    <_>
      <rects>
        <_>
          9 9 6 8 -1.</_>
        <_>
          12 9 3 8 2.</_></rects>
      <tilted>0</tilted></_>
    <_>
      <rects>
        <_>
          9 13 7 3 -1.</_>
        <_>
          9 14 7 1 3.</_></rects>
      <tilted>0</tilted></_>
    <_>
      <rects>
        <_>
          9 13 14 2 -1.</_>
        <_>
          9 13 7 1 2.</_>
        <_>
          16 14 7 1 2.</_></rects>
      <tilted>0</tilted></_>
    <_>
      <rects>
        <_>
          9 20 6 4 -1.</_>
        <_>
          11 20 2 4 3.</_></rects>
      <tilted>0</tilted></_>
    <_>
      <rects>
        <_>
          11 1 4 22 -1.</_>
        <_>
          11 12 4 11 2.</_></rects>
      <tilted>0</tilted></_>
    <_>
      <rects>
        <_>
          12 0 9 2 -1.</_>
        <_>
          15 0 3 2 3.</_></rects>
      <tilted>0</tilted></_>
    <_>
      <rects>
        <_>
          12 3 9 2 -1.</_>
        <_>
          15 3 3 2 3.</_></rects>
      <tilted>0</tilted></_>
    <_>
      <rects>
        <_>
          12 5 3 6 -1.</_>
        <_>
          13 5 1 6 3.</_></rects>
      <tilted>0</tilted></_>
    <_>
      <rects>
        <_>
          12 5 10 2 -1.</_>
        <_>
          17 5 5 2 2.</_></rects>
      <tilted>0</tilted></_>
    <_>
      <rects>
        <_>
          12 15 4 6 -1.</_>
        <_>
          12 17 4 2 3.</_></rects>
      <tilted>0</tilted></_>
    <_>
      <rects>
        <_>
          13 0 8 11 -1.</_>
        <_>
          17 0 4 11 2.</_></rects>
      <tilted>0</tilted></_>
    <_>
      <rects>
        <_>
          13 2 3 4 -1.</_>
        <_>
          14 2 1 4 3.</_></rects>
      <tilted>0</tilted></_>
    <_>
      <rects>
        <_>
          13 2 4 3 -1.</_>
        <_>
          15 2 2 3 2.</_></rects>
      <tilted>0</tilted></_>
    <_>
      <rects>
        <_>
          13 4 2 1 -1.</_>
        <_>
          14 4 1 1 2.</_></rects>
      <tilted>0</tilted></_>
    <_>
      <rects>
        <_>
          13 15 10 2 -1.</_>
        <_>
          18 15 5 2 2.</_></rects>
      <tilted>0</tilted></_>
    <_>
      <rects>
        <_>
          13 20 3 6 -1.</_>
        <_>
          13 23 3 3 2.</_></rects>
      <tilted>0</tilted></_>
    <_>
      <rects>
        <_>
          14 0 5 12 -1.</_>
        <_>
          14 4 5 4 3.</_></rects>
      <tilted>0</tilted></_>
    <_>
      <rects>
        <_>
          14 2 6 3 -1.</_>
        <_>
          16 2 2 3 3.</_></rects>
      <tilted>0</tilted></_>
    <_>
      <rects>
        <_>
          15 18 2 8 -1.</_>
        <_>
          15 22 2 4 2.</_></rects>
      <tilted>0</tilted></_>
    <_>
      <rects>
        <_>
          16 2 6 5 -1.</_>
        <_>
          18 2 2 5 3.</_></rects>
      <tilted>0</tilted></_>
    <_>
      <rects>
        <_>
          16 8 4 12 -1.</_>
        <_>
          18 8 2 12 2.</_></rects>
      <tilted>0</tilted></_>
    <_>
      <rects>
        <_>
          16 14 2 12 -1.</_>
        <_>
          16 18 2 4 3.</_></rects>
      <tilted>0</tilted></_>
    <_>
      <rects>
        <_>
          17 3 3 13 -1.</_>
        <_>
          18 3 1 13 3.</_></rects>
      <tilted>0</tilted></_>
    <_>
      <rects>
        <_>
          18 0 2 15 -1.</_>
        <_>
          18 5 2 5 3.</_></rects>
      <tilted>0</tilted></_>
    <_>
      <rects>
        <_>
          18 6 2 6 -1.</_>
        <_>
          18 8 2 2 3.</_></rects>
      <tilted>0</tilted></_>
    <_>
      <rects>
        <_>
          18 19 5 6 -1.</_>
        <_>
          18 21 5 2 3.</_></rects>
      <tilted>0</tilted></_>
    <_>
      <rects>
        <_>
          20 14 4 12 -1.</_>
        <_>
          20 20 4 6 2.</_></rects>
      <tilted>0</tilted></_>
    <_>
      <rects>
        <_>
          20 22 2 4 -1.</_>
        <_>
          20 24 2 2 2.</_></rects>
      <tilted>0</tilted></_>
    <_>
      <rects>
        <_>
          21 1 2 22 -1.</_>
        <_>
          21 1 1 11 2.</_>
        <_>
          22 12 1 11 2.</_></rects>
      <tilted>0</tilted></_>
    <_>
      <rects>
        <_>
          21 1 2 12 -1.</_>
        <_>
          21 7 2 6 2.</_></rects>
      <tilted>0</tilted></_>
    <_>
      <rects>
        <_>
          21 6 1 4 -1.</_>
        <_>
          21 8 1 2 2.</_></rects>
      <tilted>0</tilted></_>
    <_>
      <rects>
        <_>
          21 19 3 4 -1.</_>
        <_>
          21 21 3 2 2.</_></rects>
      <tilted>0</tilted></_>
    <_>
      <rects>
        <_>
          22 5 1 2 -1.</_>
        <_>
          22 6 1 1 2.</_></rects>
      <tilted>0</tilted></_>
    <_>
      <rects>
        <_>
          22 13 1 3 -1.</_>
        <_>
          22 14 1 1 3.</_></rects>
      <tilted>0</tilted></_>
    <_>
      <rects>
        <_>
          22 15 2 3 -1.</_>
        <_>
          22 16 2 1 3.</_></rects>
      <tilted>0</tilted></_>
    <_>
      <rects>
        <_>
          22 15 2 6 -1.</_>
        <_>
          22 17 2 2 3.</_></rects>
      <tilted>0</tilted></_>
    <_>
      <rects>
        <_>
          23 13 1 4 -1.</_>
        <_>
          23 15 1 2 2.</_></rects>
      <tilted>0</tilted></_></features></cascade>
</opencv_storage>
