<?xml version="1.0"?>
<opencv_storage>
<stage18>
  <maxWeakCount>5</maxWeakCount>
  <stageThreshold>-9.2127257585525513e-01</stageThreshold>
  <weakClassifiers>
    <_>
      <internalNodes>
        0 -1 16845 -3.0456489184871316e-04</internalNodes>
      <leafValues>
        -6.9696968793869019e-01 3.4328359365463257e-01</leafValues></_>
    <_>
      <internalNodes>
        0 -1 106638 -1.0820281505584717e-01</internalNodes>
      <leafValues>
        7.4975585937500000e-01 -3.5460683703422546e-01</leafValues></_>
    <_>
      <internalNodes>
        0 -1 108784 1.7310235649347305e-02</internalNodes>
      <leafValues>
        -7.5548565387725830e-01 4.2307278513908386e-01</leafValues></_>
    <_>
      <internalNodes>
        0 -1 174786 -4.2108778143301606e-04</internalNodes>
      <leafValues>
        5.0993788242340088e-01 -5.6933879852294922e-01</leafValues></_>
    <_>
      <internalNodes>
        0 -1 1221 1.2458337005227804e-04</internalNodes>
      <leafValues>
        -1. 2.7656990289688110e-01</leafValues></_></weakClassifiers></stage18>
</opencv_storage>
