<?xml version="1.0"?>
<opencv_storage>
<stage15>
  <maxWeakCount>5</maxWeakCount>
  <stageThreshold>-1.1630927324295044e+00</stageThreshold>
  <weakClassifiers>
    <_>
      <internalNodes>
        0 -1 171519 -1.7089008179027587e-04</internalNodes>
      <leafValues>
        -7.4193549156188965e-01 3.3333334326744080e-01</leafValues></_>
    <_>
      <internalNodes>
        0 -1 156456 1.0549870785325766e-04</internalNodes>
      <leafValues>
        -6.9954806566238403e-01 3.2402971386909485e-01</leafValues></_>
    <_>
      <internalNodes>
        0 -1 84629 4.8686884110793471e-04</internalNodes>
      <leafValues>
        3.3272901177406311e-01 -8.4611141681671143e-01</leafValues></_>
    <_>
      <internalNodes>
        0 -1 93989 -5.4779900237917900e-03</internalNodes>
      <leafValues>
        6.5237426757812500e-01 -4.7809028625488281e-01</leafValues></_>
    <_>
      <internalNodes>
        0 -1 151965 -3.1775569368619472e-05</internalNodes>
      <leafValues>
        3.8079816102981567e-01 -7.0671248435974121e-01</leafValues></_></weakClassifiers></stage15>
</opencv_storage>
