<?xml version="1.0"?>
<opencv_storage>
<stage5>
  <maxWeakCount>10</maxWeakCount>
  <stageThreshold>-1.3822484016418457e+00</stageThreshold>
  <weakClassifiers>
    <_>
      <internalNodes>
        0 -1 16251 -1.7766502499580383e-01</internalNodes>
      <leafValues>
        5.6235826015472412e-01 -4.9797445535659790e-01</leafValues></_>
    <_>
      <internalNodes>
        0 -1 113289 -4.1921399533748627e-03</internalNodes>
      <leafValues>
        4.5566514134407043e-01 -3.2728397846221924e-01</leafValues></_>
    <_>
      <internalNodes>
        0 -1 9555 4.7834458947181702e-01</internalNodes>
      <leafValues>
        -2.1249052882194519e-01 7.6814717054367065e-01</leafValues></_>
    <_>
      <internalNodes>
        0 -1 927 -5.6139636039733887e-01</internalNodes>
      <leafValues>
        7.9576712846755981e-01 -2.0601589977741241e-01</leafValues></_>
    <_>
      <internalNodes>
        0 -1 75014 -7.6441174314823002e-05</internalNodes>
      <leafValues>
        -6.3058322668075562e-01 2.6016026735305786e-01</leafValues></_>
    <_>
      <internalNodes>
        0 -1 188072 2.1894960809731856e-05</internalNodes>
      <leafValues>
        -5.9083342552185059e-01 2.6038682460784912e-01</leafValues></_>
    <_>
      <internalNodes>
        0 -1 75188 -3.2237403094768524e-02</internalNodes>
      <leafValues>
        4.2130440473556519e-01 -3.4727498888969421e-01</leafValues></_>
    <_>
      <internalNodes>
        0 -1 151538 -5.6693552323849872e-05</internalNodes>
      <leafValues>
        2.5962218642234802e-01 -6.4146947860717773e-01</leafValues></_>
    <_>
      <internalNodes>
        0 -1 187186 7.2526934673078358e-05</internalNodes>
      <leafValues>
        1.8506427109241486e-01 -6.4823096990585327e-01</leafValues></_>
    <_>
      <internalNodes>
        0 -1 27858 -9.5967631787061691e-03</internalNodes>
      <leafValues>
        2.1625313162803650e-01 -6.2345516681671143e-01</leafValues></_></weakClassifiers></stage5>
</opencv_storage>
