<?xml version="1.0"?>
<opencv_storage>
<stage3>
  <maxWeakCount>7</maxWeakCount>
  <stageThreshold>-1.3091423511505127e+00</stageThreshold>
  <weakClassifiers>
    <_>
      <internalNodes>
        0 -1 77238 -4.4652305543422699e-02</internalNodes>
      <leafValues>
        3.3333334326744080e-01 -5.8744394779205322e-01</leafValues></_>
    <_>
      <internalNodes>
        0 -1 128384 -2.5492016226053238e-02</internalNodes>
      <leafValues>
        6.5860879421234131e-01 -3.7865284085273743e-01</leafValues></_>
    <_>
      <internalNodes>
        0 -1 178043 -3.2427796395495534e-04</internalNodes>
      <leafValues>
        2.6934546232223511e-01 -7.7650547027587891e-01</leafValues></_>
    <_>
      <internalNodes>
        0 -1 188714 -1.4423761058424134e-05</internalNodes>
      <leafValues>
        2.6081806421279907e-01 -6.5877610445022583e-01</leafValues></_>
    <_>
      <internalNodes>
        0 -1 2338 2.2862222976982594e-05</internalNodes>
      <leafValues>
        -6.2912231683731079e-01 2.7512356638908386e-01</leafValues></_>
    <_>
      <internalNodes>
        0 -1 93841 5.3920033678878099e-05</internalNodes>
      <leafValues>
        -5.8273452520370483e-01 2.8117412328720093e-01</leafValues></_>
    <_>
      <internalNodes>
        0 -1 113289 -2.7941428124904633e-03</internalNodes>
      <leafValues>
        4.5774021744728088e-01 -3.8365578651428223e-01</leafValues></_></weakClassifiers></stage3>
</opencv_storage>
