<?xml version="1.0"?>
<opencv_storage>
<stage8>
  <maxWeakCount>10</maxWeakCount>
  <stageThreshold>-1.4737995862960815e+00</stageThreshold>
  <weakClassifiers>
    <_>
      <internalNodes>
        0 -1 118451 5.1189932972192764e-02</internalNodes>
      <leafValues>
        -5.3357756137847900e-01 2.2910019755363464e-01</leafValues></_>
    <_>
      <internalNodes>
        0 -1 14244 -3.7408664356917143e-03</internalNodes>
      <leafValues>
        -8.9960986375808716e-01 1.0409247875213623e-01</leafValues></_>
    <_>
      <internalNodes>
        0 -1 13347 2.4738680804148316e-04</internalNodes>
      <leafValues>
        1.7515647411346436e-01 -6.6365283727645874e-01</leafValues></_>
    <_>
      <internalNodes>
        0 -1 124687 5.7855988852679729e-03</internalNodes>
      <leafValues>
        1.3001355528831482e-01 -8.6994415521621704e-01</leafValues></_>
    <_>
      <internalNodes>
        0 -1 119114 -4.6735186129808426e-02</internalNodes>
      <leafValues>
        5.7449251413345337e-01 -2.3323486745357513e-01</leafValues></_>
    <_>
      <internalNodes>
        0 -1 182938 2.4579084129072726e-04</internalNodes>
      <leafValues>
        -7.4509614706039429e-01 1.9792166352272034e-01</leafValues></_>
    <_>
      <internalNodes>
        0 -1 100944 8.0878645181655884e-02</internalNodes>
      <leafValues>
        -2.6061499118804932e-01 5.3742879629135132e-01</leafValues></_>
    <_>
      <internalNodes>
        0 -1 58291 3.6177810397930443e-04</internalNodes>
      <leafValues>
        -7.7363479137420654e-01 1.9695587456226349e-01</leafValues></_>
    <_>
      <internalNodes>
        0 -1 188849 -6.0402101371437311e-04</internalNodes>
      <leafValues>
        -8.2038348913192749e-01 1.2613105773925781e-01</leafValues></_>
    <_>
      <internalNodes>
        0 -1 6720 1.3882424682378769e-02</internalNodes>
      <leafValues>
        -2.7939602732658386e-01 4.3275666236877441e-01</leafValues></_></weakClassifiers></stage8>
</opencv_storage>
