<?xml version="1.0"?>
<opencv_storage>
<cascade>
  <stageType>BOOST</stageType>
  <featureType>HAAR</featureType>
  <height>26</height>
  <width>24</width>
  <stageParams>
    <boostType>GAB</boostType>
    <minHitRate>9.9500000476837158e-01</minHitRate>
    <maxFalseAlarm>5.0000000000000000e-01</maxFalseAlarm>
    <weightTrimRate>9.4999999999999996e-01</weightTrimRate>
    <maxDepth>1</maxDepth>
    <maxWeakCount>100</maxWeakCount></stageParams>
  <featureParams>
    <maxCatCount>0</maxCatCount>
    <featSize>1</featSize>
    <mode>BASIC</mode></featureParams>
  <stageNum>12</stageNum>
  <stages>
    <!-- stage 0 -->
    <_>
      <maxWeakCount>4</maxWeakCount>
      <stageThreshold>-1.4431918859481812e+00</stageThreshold>
      <weakClassifiers>
        <_>
          <internalNodes>
            0 -1 31 4.1654814034700394e-02</internalNodes>
          <leafValues>
            -8.5949128866195679e-01 2.3996205627918243e-01</leafValues></_>
        <_>
          <internalNodes>
            0 -1 26 -6.3706032931804657e-02</internalNodes>
          <leafValues>
            7.2067600488662720e-01 -5.2918660640716553e-01</leafValues></_>
        <_>
          <internalNodes>
            0 -1 50 -4.4679395854473114e-02</internalNodes>
          <leafValues>
            7.8579580783843994e-01 -4.2459836602210999e-01</leafValues></_>
        <_>
          <internalNodes>
            0 -1 84 -7.4542715447023511e-04</internalNodes>
          <leafValues>
            4.1173124313354492e-01 -8.4030979871749878e-01</leafValues></_></weakClassifiers></_>
    <!-- stage 1 -->
    <_>
      <maxWeakCount>6</maxWeakCount>
      <stageThreshold>-1.9602495431900024e+00</stageThreshold>
      <weakClassifiers>
        <_>
          <internalNodes>
            0 -1 33 6.3589662313461304e-02</internalNodes>
          <leafValues>
            -8.8689380884170532e-01 6.7615658044815063e-02</leafValues></_>
        <_>
          <internalNodes>
            0 -1 24 2.0736393053084612e-03</internalNodes>
          <leafValues>
            -9.0937888622283936e-01 8.7453210726380348e-03</leafValues></_>
        <_>
          <internalNodes>
            0 -1 19 -1.6621787101030350e-02</internalNodes>
          <leafValues>
            2.6342263817787170e-01 -7.5532466173171997e-01</leafValues></_>
        <_>
          <internalNodes>
            0 -1 21 1.0271413251757622e-02</internalNodes>
          <leafValues>
            -8.5142749547958374e-01 2.6997926831245422e-01</leafValues></_>
        <_>
          <internalNodes>
            0 -1 80 -3.4837499697459862e-05</internalNodes>
          <leafValues>
            2.5895076990127563e-01 -7.6200902462005615e-01</leafValues></_>
        <_>
          <internalNodes>
            0 -1 68 -3.9497632533311844e-03</internalNodes>
          <leafValues>
            2.6570037007331848e-01 -7.2990429401397705e-01</leafValues></_></weakClassifiers></_>
    <!-- stage 2 -->
    <_>
      <maxWeakCount>9</maxWeakCount>
      <stageThreshold>-2.1717934608459473e+00</stageThreshold>
      <weakClassifiers>
        <_>
          <internalNodes>
            0 -1 56 1.8528893589973450e-01</internalNodes>
          <leafValues>
            -8.1922930479049683e-01 5.2331608533859253e-01</leafValues></_>
        <_>
          <internalNodes>
            0 -1 49 4.8289194703102112e-02</internalNodes>
          <leafValues>
            -5.0158447027206421e-01 5.7715451717376709e-01</leafValues></_>
        <_>
          <internalNodes>
            0 -1 60 -4.2232468724250793e-02</internalNodes>
          <leafValues>
            7.7417242527008057e-01 -4.1452616453170776e-01</leafValues></_>
        <_>
          <internalNodes>
            0 -1 40 -1.9102150108665228e-03</internalNodes>
          <leafValues>
            3.5568884015083313e-01 -6.8933862447738647e-01</leafValues></_>
        <_>
          <internalNodes>
            0 -1 35 2.3847078409744427e-05</internalNodes>
          <leafValues>
            -7.8944176435470581e-01 2.6151025295257568e-01</leafValues></_>
        <_>
          <internalNodes>
            0 -1 11 5.0870253471657634e-04</internalNodes>
          <leafValues>
            2.3210613429546356e-01 -7.7523541450500488e-01</leafValues></_>
        <_>
          <internalNodes>
            0 -1 95 1.2321592294028960e-05</internalNodes>
          <leafValues>
            -6.5909826755523682e-01 3.0194988846778870e-01</leafValues></_>
        <_>
          <internalNodes>
            0 -1 22 3.4186694392701611e-05</internalNodes>
          <leafValues>
            2.2952929139137268e-01 -7.1901714801788330e-01</leafValues></_>
        <_>
          <internalNodes>
            0 -1 28 -1.1207735224161297e-04</internalNodes>
          <leafValues>
            -8.2820183038711548e-01 1.9476214051246643e-01</leafValues></_></weakClassifiers></_>
    <!-- stage 3 -->
    <_>
      <maxWeakCount>8</maxWeakCount>
      <stageThreshold>-1.9287407398223877e+00</stageThreshold>
      <weakClassifiers>
        <_>
          <internalNodes>
            0 -1 58 4.7566026449203491e-02</internalNodes>
          <leafValues>
            -8.4871578216552734e-01 -1.6471646726131439e-01</leafValues></_>
        <_>
          <internalNodes>
            0 -1 61 -3.1966455280780792e-03</internalNodes>
          <leafValues>
            2.9875612258911133e-01 -5.6668853759765625e-01</leafValues></_>
        <_>
          <internalNodes>
            0 -1 98 1.8296277266927063e-04</internalNodes>
          <leafValues>
            1.9795933365821838e-01 -7.6594978570938110e-01</leafValues></_>
        <_>
          <internalNodes>
            0 -1 7 2.5654891942394897e-05</internalNodes>
          <leafValues>
            -6.4478319883346558e-01 2.5952488183975220e-01</leafValues></_>
        <_>
          <internalNodes>
            0 -1 78 1.9718031398952007e-04</internalNodes>
          <leafValues>
            -5.6384032964706421e-01 3.2899832725524902e-01</leafValues></_>
        <_>
          <internalNodes>
            0 -1 86 -1.7680176533758640e-03</internalNodes>
          <leafValues>
            -8.1488686800003052e-01 2.0129792392253876e-01</leafValues></_>
        <_>
          <internalNodes>
            0 -1 63 3.9664674550294876e-03</internalNodes>
          <leafValues>
            2.3272795975208282e-01 -7.1425491571426392e-01</leafValues></_>
        <_>
          <internalNodes>
            0 -1 6 2.5299649685621262e-02</internalNodes>
          <leafValues>
            -7.2373104095458984e-01 2.1404203772544861e-01</leafValues></_></weakClassifiers></_>
    <!-- stage 4 -->
    <_>
      <maxWeakCount>9</maxWeakCount>
      <stageThreshold>-1.8475626707077026e+00</stageThreshold>
      <weakClassifiers>
        <_>
          <internalNodes>
            0 -1 15 -1.9978447258472443e-01</internalNodes>
          <leafValues>
            2.5925925374031067e-01 -8.0877822637557983e-01</leafValues></_>
        <_>
          <internalNodes>
            0 -1 52 -3.1199927907437086e-03</internalNodes>
          <leafValues>
            2.1696324646472931e-01 -5.8257013559341431e-01</leafValues></_>
        <_>
          <internalNodes>
            0 -1 71 -3.8141955155879259e-04</internalNodes>
          <leafValues>
            2.2034557163715363e-01 -6.6670447587966919e-01</leafValues></_>
        <_>
          <internalNodes>
            0 -1 38 -3.8999032229185104e-02</internalNodes>
          <leafValues>
            5.2698177099227905e-01 -2.9835984110832214e-01</leafValues></_>
        <_>
          <internalNodes>
            0 -1 9 -4.2615190148353577e-01</internalNodes>
          <leafValues>
            7.6116120815277100e-01 -2.7115720510482788e-01</leafValues></_>
        <_>
          <internalNodes>
            0 -1 87 4.0623097447678447e-05</internalNodes>
          <leafValues>
            -7.2470563650131226e-01 3.0743917822837830e-01</leafValues></_>
        <_>
          <internalNodes>
            0 -1 85 1.0590916645014659e-04</internalNodes>
          <leafValues>
            2.3434530198574066e-01 -5.9565937519073486e-01</leafValues></_>
        <_>
          <internalNodes>
            0 -1 36 2.5728915352374315e-04</internalNodes>
          <leafValues>
            -8.0122160911560059e-01 1.6787265241146088e-01</leafValues></_>
        <_>
          <internalNodes>
            0 -1 99 1.1519961990416050e-03</internalNodes>
          <leafValues>
            2.3534494638442993e-01 -5.8543062210083008e-01</leafValues></_></weakClassifiers></_>
    <!-- stage 5 -->
    <_>
      <maxWeakCount>8</maxWeakCount>
      <stageThreshold>-1.8238754272460938e+00</stageThreshold>
      <weakClassifiers>
        <_>
          <internalNodes>
            0 -1 69 -3.9192561060190201e-02</internalNodes>
          <leafValues>
            -2.1212121844291687e-01 -8.3356565237045288e-01</leafValues></_>
        <_>
          <internalNodes>
            0 -1 60 6.3160061836242676e-02</internalNodes>
          <leafValues>
            -4.3899017572402954e-01 4.9966967105865479e-01</leafValues></_>
        <_>
          <internalNodes>
            0 -1 25 -1.2065826922480483e-05</internalNodes>
          <leafValues>
            2.5891891121864319e-01 -5.7335788011550903e-01</leafValues></_>
        <_>
          <internalNodes>
            0 -1 42 -1.0168138891458511e-02</internalNodes>
          <leafValues>
            3.3213084936141968e-01 -4.3776661157608032e-01</leafValues></_>
        <_>
          <internalNodes>
            0 -1 88 7.6098316640127450e-05</internalNodes>
          <leafValues>
            2.1835134923458099e-01 -6.5708029270172119e-01</leafValues></_>
        <_>
          <internalNodes>
            0 -1 14 -3.5476223565638065e-03</internalNodes>
          <leafValues>
            -8.9356905221939087e-01 1.6249606013298035e-01</leafValues></_>
        <_>
          <internalNodes>
            0 -1 12 -6.1000447021797299e-04</internalNodes>
          <leafValues>
            -8.7656253576278687e-01 1.4391812682151794e-01</leafValues></_>
        <_>
          <internalNodes>
            0 -1 94 2.4356930225621909e-05</internalNodes>
          <leafValues>
            -6.1106985807418823e-01 2.0655047893524170e-01</leafValues></_></weakClassifiers></_>
    <!-- stage 6 -->
    <_>
      <maxWeakCount>9</maxWeakCount>
      <stageThreshold>-1.9332516193389893e+00</stageThreshold>
      <weakClassifiers>
        <_>
          <internalNodes>
            0 -1 1 -4.0952362120151520e-02</internalNodes>
          <leafValues>
            -2.8571429848670959e-01 -8.4031075239181519e-01</leafValues></_>
        <_>
          <internalNodes>
            0 -1 46 -8.4198452532291412e-03</internalNodes>
          <leafValues>
            3.3706933259963989e-01 -4.6823114156723022e-01</leafValues></_>
        <_>
          <internalNodes>
            0 -1 12 6.2752218218520284e-04</internalNodes>
          <leafValues>
            1.5735973417758942e-01 -8.5291111469268799e-01</leafValues></_>
        <_>
          <internalNodes>
            0 -1 10 -2.3472760803997517e-03</internalNodes>
          <leafValues>
            2.2089460492134094e-01 -6.9400101900100708e-01</leafValues></_>
        <_>
          <internalNodes>
            0 -1 17 3.3063518349081278e-03</internalNodes>
          <leafValues>
            -5.5180376768112183e-01 2.2612996399402618e-01</leafValues></_>
        <_>
          <internalNodes>
            0 -1 16 -1.1132027208805084e-01</internalNodes>
          <leafValues>
            -9.2253392934799194e-01 1.6843122243881226e-01</leafValues></_>
        <_>
          <internalNodes>
            0 -1 81 -2.3940710889291950e-05</internalNodes>
          <leafValues>
            1.4976891875267029e-01 -6.5113657712936401e-01</leafValues></_>
        <_>
          <internalNodes>
            0 -1 92 -8.5789232980459929e-04</internalNodes>
          <leafValues>
            -8.4318602085113525e-01 1.3353790342807770e-01</leafValues></_>
        <_>
          <internalNodes>
            0 -1 47 -2.7175847208127379e-05</internalNodes>
          <leafValues>
            1.8806678056716919e-01 -6.1405825614929199e-01</leafValues></_></weakClassifiers></_>
    <!-- stage 7 -->
    <_>
      <maxWeakCount>10</maxWeakCount>
      <stageThreshold>-2.1549963951110840e+00</stageThreshold>
      <weakClassifiers>
        <_>
          <internalNodes>
            0 -1 74 2.3964639753103256e-02</internalNodes>
          <leafValues>
            -8.1104654073715210e-01 -9.3799680471420288e-02</leafValues></_>
        <_>
          <internalNodes>
            0 -1 29 -5.9153209440410137e-04</internalNodes>
          <leafValues>
            -3.1230906024575233e-02 -7.4020349979400635e-01</leafValues></_>
        <_>
          <internalNodes>
            0 -1 2 2.5899546017171815e-05</internalNodes>
          <leafValues>
            -6.9635802507400513e-01 1.4199174940586090e-01</leafValues></_>
        <_>
          <internalNodes>
            0 -1 72 -1.3598473742604256e-04</internalNodes>
          <leafValues>
            1.9967396557331085e-01 -6.4466172456741333e-01</leafValues></_>
        <_>
          <internalNodes>
            0 -1 79 -3.5251810913905501e-05</internalNodes>
          <leafValues>
            2.5087073445320129e-01 -5.2186816930770874e-01</leafValues></_>
        <_>
          <internalNodes>
            0 -1 91 6.2681705458089709e-05</internalNodes>
          <leafValues>
            1.9450496137142181e-01 -6.2265956401824951e-01</leafValues></_>
        <_>
          <internalNodes>
            0 -1 8 9.7532651852816343e-04</internalNodes>
          <leafValues>
            2.5420123338699341e-01 -4.9761018157005310e-01</leafValues></_>
        <_>
          <internalNodes>
            0 -1 54 -3.5900652408599854e-02</internalNodes>
          <leafValues>
            -8.7990689277648926e-01 1.2859354913234711e-01</leafValues></_>
        <_>
          <internalNodes>
            0 -1 76 4.5070459600538015e-04</internalNodes>
          <leafValues>
            1.3639079034328461e-01 -7.5972914695739746e-01</leafValues></_>
        <_>
          <internalNodes>
            0 -1 48 -8.1699630245566368e-03</internalNodes>
          <leafValues>
            5.3719645738601685e-01 -2.5006005167961121e-01</leafValues></_></weakClassifiers></_>
    <!-- stage 8 -->
    <_>
      <maxWeakCount>9</maxWeakCount>
      <stageThreshold>-1.7576885223388672e+00</stageThreshold>
      <weakClassifiers>
        <_>
          <internalNodes>
            0 -1 18 6.0544501990079880e-02</internalNodes>
          <leafValues>
            -8.1302660703659058e-01 -1.6388888657093048e-01</leafValues></_>
        <_>
          <internalNodes>
            0 -1 53 -4.5833825133740902e-03</internalNodes>
          <leafValues>
            2.3287409543991089e-01 -4.9477440118789673e-01</leafValues></_>
        <_>
          <internalNodes>
            0 -1 65 5.8973056729882956e-04</internalNodes>
          <leafValues>
            1.8645361065864563e-01 -6.3651877641677856e-01</leafValues></_>
        <_>
          <internalNodes>
            0 -1 3 2.3891370801720768e-05</internalNodes>
          <leafValues>
            -5.9721356630325317e-01 2.0361301302909851e-01</leafValues></_>
        <_>
          <internalNodes>
            0 -1 20 3.6945454776287079e-02</internalNodes>
          <leafValues>
            1.4669692516326904e-01 -8.9882063865661621e-01</leafValues></_>
        <_>
          <internalNodes>
            0 -1 37 -7.5822681537829340e-05</internalNodes>
          <leafValues>
            -6.5917885303497314e-01 2.0431458950042725e-01</leafValues></_>
        <_>
          <internalNodes>
            0 -1 97 1.6397659783251584e-04</internalNodes>
          <leafValues>
            1.8794505298137665e-01 -6.1242711544036865e-01</leafValues></_>
        <_>
          <internalNodes>
            0 -1 45 3.0955305555835366e-04</internalNodes>
          <leafValues>
            1.8817758560180664e-01 -6.2713235616683960e-01</leafValues></_>
        <_>
          <internalNodes>
            0 -1 75 3.9175880374386907e-05</internalNodes>
          <leafValues>
            -5.9432965517044067e-01 1.9255569577217102e-01</leafValues></_></weakClassifiers></_>
    <!-- stage 9 -->
    <_>
      <maxWeakCount>9</maxWeakCount>
      <stageThreshold>-1.7220515012741089e+00</stageThreshold>
      <weakClassifiers>
        <_>
          <internalNodes>
            0 -1 27 -7.1811400353908539e-02</internalNodes>
          <leafValues>
            -1.8214936135336757e-03 -8.1014645099639893e-01</leafValues></_>
        <_>
          <internalNodes>
            0 -1 5 -7.6254708692431450e-03</internalNodes>
          <leafValues>
            2.3154927790164948e-01 -4.9425336718559265e-01</leafValues></_>
        <_>
          <internalNodes>
            0 -1 77 -5.7839398505166173e-04</internalNodes>
          <leafValues>
            1.8519683182239532e-01 -5.9179168939590454e-01</leafValues></_>
        <_>
          <internalNodes>
            0 -1 64 -3.9887644350528717e-02</internalNodes>
          <leafValues>
            6.7331111431121826e-01 -1.9822908937931061e-01</leafValues></_>
        <_>
          <internalNodes>
            0 -1 0 4.4197028875350952e-01</internalNodes>
          <leafValues>
            -2.7480712532997131e-01 6.4784264564514160e-01</leafValues></_>
        <_>
          <internalNodes>
            0 -1 70 -1.1072172783315182e-03</internalNodes>
          <leafValues>
            2.4496029317378998e-01 -6.8773943185806274e-01</leafValues></_>
        <_>
          <internalNodes>
            0 -1 34 1.0426525026559830e-02</internalNodes>
          <leafValues>
            -7.1928429603576660e-01 1.4653949439525604e-01</leafValues></_>
        <_>
          <internalNodes>
            0 -1 83 2.5017619918799028e-05</internalNodes>
          <leafValues>
            -5.0319582223892212e-01 2.1667197346687317e-01</leafValues></_>
        <_>
          <internalNodes>
            0 -1 93 6.7495078837964684e-05</internalNodes>
          <leafValues>
            1.5766276419162750e-01 -6.9119590520858765e-01</leafValues></_></weakClassifiers></_>
    <!-- stage 10 -->
    <_>
      <maxWeakCount>11</maxWeakCount>
      <stageThreshold>-1.7351162433624268e+00</stageThreshold>
      <weakClassifiers>
        <_>
          <internalNodes>
            0 -1 4 6.1254724860191345e-02</internalNodes>
          <leafValues>
            -7.8952658176422119e-01 3.8461539149284363e-01</leafValues></_>
        <_>
          <internalNodes>
            0 -1 59 -4.7510139644145966e-02</internalNodes>
          <leafValues>
            4.0466997027397156e-01 -4.2361783981323242e-01</leafValues></_>
        <_>
          <internalNodes>
            0 -1 39 -3.6543346941471100e-02</internalNodes>
          <leafValues>
            4.3330094218254089e-01 -3.8416710495948792e-01</leafValues></_>
        <_>
          <internalNodes>
            0 -1 23 3.0016904929652810e-04</internalNodes>
          <leafValues>
            -6.5422445535659790e-01 2.0198808610439301e-01</leafValues></_>
        <_>
          <internalNodes>
            0 -1 51 -1.5894096344709396e-02</internalNodes>
          <leafValues>
            4.9530369043350220e-01 -2.5099176168441772e-01</leafValues></_>
        <_>
          <internalNodes>
            0 -1 55 3.1802034936845303e-03</internalNodes>
          <leafValues>
            1.4870738983154297e-01 -8.6892944574356079e-01</leafValues></_>
        <_>
          <internalNodes>
            0 -1 73 -1.7744559794664383e-02</internalNodes>
          <leafValues>
            -6.1518508195877075e-01 1.5423294901847839e-01</leafValues></_>
        <_>
          <internalNodes>
            0 -1 32 -3.3215139410458505e-05</internalNodes>
          <leafValues>
            1.0880744457244873e-01 -7.3562926054000854e-01</leafValues></_>
        <_>
          <internalNodes>
            0 -1 90 1.1585541069507599e-03</internalNodes>
          <leafValues>
            1.1848364025354385e-01 -8.0538946390151978e-01</leafValues></_>
        <_>
          <internalNodes>
            0 -1 96 -6.9986534072086215e-04</internalNodes>
          <leafValues>
            -8.1119287014007568e-01 1.1466488242149353e-01</leafValues></_>
        <_>
          <internalNodes>
            0 -1 62 -4.2857867811108008e-05</internalNodes>
          <leafValues>
            2.1528296172618866e-01 -4.5110297203063965e-01</leafValues></_></weakClassifiers></_>
    <!-- stage 11 -->
    <_>
      <maxWeakCount>11</maxWeakCount>
      <stageThreshold>-1.9487702846527100e+00</stageThreshold>
      <weakClassifiers>
        <_>
          <internalNodes>
            0 -1 57 6.0021840035915375e-02</internalNodes>
          <leafValues>
            -8.2311421632766724e-01 -2.5720164179801941e-01</leafValues></_>
        <_>
          <internalNodes>
            0 -1 89 -2.6192028599325567e-05</internalNodes>
          <leafValues>
            -3.1781774014234543e-02 -6.7370510101318359e-01</leafValues></_>
        <_>
          <internalNodes>
            0 -1 30 1.7823262512683868e-01</internalNodes>
          <leafValues>
            8.9288569986820221e-02 -8.6672133207321167e-01</leafValues></_>
        <_>
          <internalNodes>
            0 -1 13 1.4681796892546117e-04</internalNodes>
          <leafValues>
            1.7061167955398560e-01 -6.0531526803970337e-01</leafValues></_>
        <_>
          <internalNodes>
            0 -1 41 4.7388724051415920e-03</internalNodes>
          <leafValues>
            -2.3480884730815887e-01 4.8097401857376099e-01</leafValues></_>
        <_>
          <internalNodes>
            0 -1 82 -3.1985873647499830e-05</internalNodes>
          <leafValues>
            2.2324615716934204e-01 -5.5444717407226562e-01</leafValues></_>
        <_>
          <internalNodes>
            0 -1 43 4.5382576063275337e-03</internalNodes>
          <leafValues>
            -2.0905156433582306e-01 5.5860203504562378e-01</leafValues></_>
        <_>
          <internalNodes>
            0 -1 44 4.2003033740911633e-05</internalNodes>
          <leafValues>
            -5.1458013057708740e-01 2.3525641858577728e-01</leafValues></_>
        <_>
          <internalNodes>
            0 -1 48 4.6267714351415634e-03</internalNodes>
          <leafValues>
            -1.8514390289783478e-01 6.7951387166976929e-01</leafValues></_>
        <_>
          <internalNodes>
            0 -1 66 -3.4845541231334209e-03</internalNodes>
          <leafValues>
            -8.8656210899353027e-01 1.4786973595619202e-01</leafValues></_>
        <_>
          <internalNodes>
            0 -1 67 1.2884472962468863e-03</internalNodes>
          <leafValues>
            1.2252779304981232e-01 -8.4390163421630859e-01</leafValues></_></weakClassifiers></_></stages>
  <features>
    <_>
      <rects>
        <_>
          0 0 24 26 -1.</_>
        <_>
          12 0 12 26 2.</_></rects>
      <tilted>0</tilted></_>
    <_>
      <rects>
        <_>
          0 0 23 4 -1.</_>
        <_>
          0 2 23 2 2.</_></rects>
      <tilted>0</tilted></_>
    <_>
      <rects>
        <_>
          0 2 1 14 -1.</_>
        <_>
          0 9 1 7 2.</_></rects>
      <tilted>0</tilted></_>
    <_>
      <rects>
        <_>
          0 2 2 14 -1.</_>
        <_>
          0 2 1 7 2.</_>
        <_>
          1 9 1 7 2.</_></rects>
      <tilted>0</tilted></_>
    <_>
      <rects>
        <_>
          0 2 24 1 -1.</_>
        <_>
          8 2 8 1 3.</_></rects>
      <tilted>0</tilted></_>
    <_>
      <rects>
        <_>
          0 2 24 3 -1.</_>
        <_>
          0 3 24 1 3.</_></rects>
      <tilted>0</tilted></_>
    <_>
      <rects>
        <_>
          0 3 21 16 -1.</_>
        <_>
          0 11 21 8 2.</_></rects>
      <tilted>0</tilted></_>
    <_>
      <rects>
        <_>
          0 4 2 16 -1.</_>
        <_>
          0 4 1 8 2.</_>
        <_>
          1 12 1 8 2.</_></rects>
      <tilted>0</tilted></_>
    <_>
      <rects>
        <_>
          0 4 1 22 -1.</_>
        <_>
          0 15 1 11 2.</_></rects>
      <tilted>0</tilted></_>
    <_>
      <rects>
        <_>
          0 8 24 18 -1.</_>
        <_>
          12 8 12 18 2.</_></rects>
      <tilted>0</tilted></_>
    <_>
      <rects>
        <_>
          0 14 24 5 -1.</_>
        <_>
          8 14 8 5 3.</_></rects>
      <tilted>0</tilted></_>
    <_>
      <rects>
        <_>
          0 17 1 8 -1.</_>
        <_>
          0 21 1 4 2.</_></rects>
      <tilted>0</tilted></_>
    <_>
      <rects>
        <_>
          0 17 2 3 -1.</_>
        <_>
          0 18 2 1 3.</_></rects>
      <tilted>0</tilted></_>
    <_>
      <rects>
        <_>
          0 18 2 4 -1.</_>
        <_>
          0 20 2 2 2.</_></rects>
      <tilted>0</tilted></_>
    <_>
      <rects>
        <_>
          0 18 3 6 -1.</_>
        <_>
          0 20 3 2 3.</_></rects>
      <tilted>0</tilted></_>
    <_>
      <rects>
        <_>
          1 0 14 16 -1.</_>
        <_>
          1 0 7 8 2.</_>
        <_>
          8 8 7 8 2.</_></rects>
      <tilted>0</tilted></_>
    <_>
      <rects>
        <_>
          1 0 21 19 -1.</_>
        <_>
          8 0 7 19 3.</_></rects>
      <tilted>0</tilted></_>
    <_>
      <rects>
        <_>
          1 7 22 2 -1.</_>
        <_>
          1 8 22 1 2.</_></rects>
      <tilted>0</tilted></_>
    <_>
      <rects>
        <_>
          1 8 9 9 -1.</_>
        <_>
          4 8 3 9 3.</_></rects>
      <tilted>0</tilted></_>
    <_>
      <rects>
        <_>
          1 14 21 8 -1.</_>
        <_>
          8 14 7 8 3.</_></rects>
      <tilted>0</tilted></_>
    <_>
      <rects>
        <_>
          2 0 8 22 -1.</_>
        <_>
          6 0 4 22 2.</_></rects>
      <tilted>0</tilted></_>
    <_>
      <rects>
        <_>
          2 5 18 10 -1.</_>
        <_>
          2 10 18 5 2.</_></rects>
      <tilted>0</tilted></_>
    <_>
      <rects>
        <_>
          2 15 8 1 -1.</_>
        <_>
          6 15 4 1 2.</_></rects>
      <tilted>0</tilted></_>
    <_>
      <rects>
        <_>
          3 0 8 11 -1.</_>
        <_>
          7 0 4 11 2.</_></rects>
      <tilted>0</tilted></_>
    <_>
      <rects>
        <_>
          3 3 10 5 -1.</_>
        <_>
          8 3 5 5 2.</_></rects>
      <tilted>0</tilted></_>
    <_>
      <rects>
        <_>
          3 5 2 2 -1.</_>
        <_>
          4 5 1 2 2.</_></rects>
      <tilted>0</tilted></_>
    <_>
      <rects>
        <_>
          3 8 12 9 -1.</_>
        <_>
          7 8 4 9 3.</_></rects>
      <tilted>0</tilted></_>
    <_>
      <rects>
        <_>
          4 0 6 16 -1.</_>
        <_>
          4 0 3 8 2.</_>
        <_>
          7 8 3 8 2.</_></rects>
      <tilted>0</tilted></_>
    <_>
      <rects>
        <_>
          4 0 8 10 -1.</_>
        <_>
          8 0 4 10 2.</_></rects>
      <tilted>0</tilted></_>
    <_>
      <rects>
        <_>
          4 0 6 8 -1.</_>
        <_>
          4 4 6 4 2.</_></rects>
      <tilted>0</tilted></_>
    <_>
      <rects>
        <_>
          4 0 16 22 -1.</_>
        <_>
          4 11 16 11 2.</_></rects>
      <tilted>0</tilted></_>
    <_>
      <rects>
        <_>
          4 1 15 9 -1.</_>
        <_>
          9 1 5 9 3.</_></rects>
      <tilted>0</tilted></_>
    <_>
      <rects>
        <_>
          4 2 1 9 -1.</_>
        <_>
          4 5 1 3 3.</_></rects>
      <tilted>0</tilted></_>
    <_>
      <rects>
        <_>
          4 2 15 6 -1.</_>
        <_>
          9 2 5 6 3.</_></rects>
      <tilted>0</tilted></_>
    <_>
      <rects>
        <_>
          4 4 16 12 -1.</_>
        <_>
          4 10 16 6 2.</_></rects>
      <tilted>0</tilted></_>
    <_>
      <rects>
        <_>
          4 6 1 4 -1.</_>
        <_>
          4 8 1 2 2.</_></rects>
      <tilted>0</tilted></_>
    <_>
      <rects>
        <_>
          5 4 8 2 -1.</_>
        <_>
          9 4 4 2 2.</_></rects>
      <tilted>0</tilted></_>
    <_>
      <rects>
        <_>
          5 5 2 2 -1.</_>
        <_>
          6 5 1 2 2.</_></rects>
      <tilted>0</tilted></_>
    <_>
      <rects>
        <_>
          5 5 9 9 -1.</_>
        <_>
          8 5 3 9 3.</_></rects>
      <tilted>0</tilted></_>
    <_>
      <rects>
        <_>
          5 5 9 10 -1.</_>
        <_>
          8 5 3 10 3.</_></rects>
      <tilted>0</tilted></_>
    <_>
      <rects>
        <_>
          5 16 14 9 -1.</_>
        <_>
          5 19 14 3 3.</_></rects>
      <tilted>0</tilted></_>
    <_>
      <rects>
        <_>
          5 17 12 3 -1.</_>
        <_>
          5 18 12 1 3.</_></rects>
      <tilted>0</tilted></_>
    <_>
      <rects>
        <_>
          5 17 14 6 -1.</_>
        <_>
          5 19 14 2 3.</_></rects>
      <tilted>0</tilted></_>
    <_>
      <rects>
        <_>
          5 18 13 3 -1.</_>
        <_>
          5 19 13 1 3.</_></rects>
      <tilted>0</tilted></_>
    <_>
      <rects>
        <_>
          5 19 5 6 -1.</_>
        <_>
          5 22 5 3 2.</_></rects>
      <tilted>0</tilted></_>
    <_>
      <rects>
        <_>
          6 2 3 6 -1.</_>
        <_>
          7 2 1 6 3.</_></rects>
      <tilted>0</tilted></_>
    <_>
      <rects>
        <_>
          6 19 11 3 -1.</_>
        <_>
          6 20 11 1 3.</_></rects>
      <tilted>0</tilted></_>
    <_>
      <rects>
        <_>
          7 16 1 9 -1.</_>
        <_>
          7 19 1 3 3.</_></rects>
      <tilted>0</tilted></_>
    <_>
      <rects>
        <_>
          7 19 10 3 -1.</_>
        <_>
          7 20 10 1 3.</_></rects>
      <tilted>0</tilted></_>
    <_>
      <rects>
        <_>
          8 5 6 10 -1.</_>
        <_>
          11 5 3 10 2.</_></rects>
      <tilted>0</tilted></_>
    <_>
      <rects>
        <_>
          8 9 12 7 -1.</_>
        <_>
          12 9 4 7 3.</_></rects>
      <tilted>0</tilted></_>
    <_>
      <rects>
        <_>
          8 12 7 6 -1.</_>
        <_>
          8 14 7 2 3.</_></rects>
      <tilted>0</tilted></_>
    <_>
      <rects>
        <_>
          8 13 8 2 -1.</_>
        <_>
          8 14 8 1 2.</_></rects>
      <tilted>0</tilted></_>
    <_>
      <rects>
        <_>
          8 13 8 3 -1.</_>
        <_>
          8 14 8 1 3.</_></rects>
      <tilted>0</tilted></_>
    <_>
      <rects>
        <_>
          8 14 7 12 -1.</_>
        <_>
          8 20 7 6 2.</_></rects>
      <tilted>0</tilted></_>
    <_>
      <rects>
        <_>
          9 0 6 1 -1.</_>
        <_>
          11 0 2 1 3.</_></rects>
      <tilted>0</tilted></_>
    <_>
      <rects>
        <_>
          9 0 14 16 -1.</_>
        <_>
          9 0 7 8 2.</_>
        <_>
          16 8 7 8 2.</_></rects>
      <tilted>0</tilted></_>
    <_>
      <rects>
        <_>
          9 3 6 12 -1.</_>
        <_>
          11 3 2 12 3.</_></rects>
      <tilted>0</tilted></_>
    <_>
      <rects>
        <_>
          9 3 6 13 -1.</_>
        <_>
          11 3 2 13 3.</_></rects>
      <tilted>0</tilted></_>
    <_>
      <rects>
        <_>
          9 5 9 9 -1.</_>
        <_>
          12 5 3 9 3.</_></rects>
      <tilted>0</tilted></_>
    <_>
      <rects>
        <_>
          9 5 6 10 -1.</_>
        <_>
          12 5 3 10 2.</_></rects>
      <tilted>0</tilted></_>
    <_>
      <rects>
        <_>
          9 13 6 2 -1.</_>
        <_>
          9 14 6 1 2.</_></rects>
      <tilted>0</tilted></_>
    <_>
      <rects>
        <_>
          9 23 6 1 -1.</_>
        <_>
          11 23 2 1 3.</_></rects>
      <tilted>0</tilted></_>
    <_>
      <rects>
        <_>
          10 0 1 20 -1.</_>
        <_>
          10 10 1 10 2.</_></rects>
      <tilted>0</tilted></_>
    <_>
      <rects>
        <_>
          10 4 4 12 -1.</_>
        <_>
          12 4 2 12 2.</_></rects>
      <tilted>0</tilted></_>
    <_>
      <rects>
        <_>
          10 12 3 12 -1.</_>
        <_>
          10 18 3 6 2.</_></rects>
      <tilted>0</tilted></_>
    <_>
      <rects>
        <_>
          10 19 3 7 -1.</_>
        <_>
          11 19 1 7 3.</_></rects>
      <tilted>0</tilted></_>
    <_>
      <rects>
        <_>
          10 20 3 3 -1.</_>
        <_>
          11 20 1 3 3.</_></rects>
      <tilted>0</tilted></_>
    <_>
      <rects>
        <_>
          11 1 8 8 -1.</_>
        <_>
          15 1 4 8 2.</_></rects>
      <tilted>0</tilted></_>
    <_>
      <rects>
        <_>
          11 5 6 12 -1.</_>
        <_>
          13 5 2 12 3.</_></rects>
      <tilted>0</tilted></_>
    <_>
      <rects>
        <_>
          12 0 8 11 -1.</_>
        <_>
          16 0 4 11 2.</_></rects>
      <tilted>0</tilted></_>
    <_>
      <rects>
        <_>
          12 3 9 2 -1.</_>
        <_>
          15 3 3 2 3.</_></rects>
      <tilted>0</tilted></_>
    <_>
      <rects>
        <_>
          13 3 2 4 -1.</_>
        <_>
          14 3 1 4 2.</_></rects>
      <tilted>0</tilted></_>
    <_>
      <rects>
        <_>
          13 4 10 12 -1.</_>
        <_>
          18 4 5 12 2.</_></rects>
      <tilted>0</tilted></_>
    <_>
      <rects>
        <_>
          14 9 4 7 -1.</_>
        <_>
          16 9 2 7 2.</_></rects>
      <tilted>0</tilted></_>
    <_>
      <rects>
        <_>
          14 15 8 1 -1.</_>
        <_>
          18 15 4 1 2.</_></rects>
      <tilted>0</tilted></_>
    <_>
      <rects>
        <_>
          15 2 3 3 -1.</_>
        <_>
          16 2 1 3 3.</_></rects>
      <tilted>0</tilted></_>
    <_>
      <rects>
        <_>
          15 16 3 9 -1.</_>
        <_>
          15 19 3 3 3.</_></rects>
      <tilted>0</tilted></_>
    <_>
      <rects>
        <_>
          15 19 2 6 -1.</_>
        <_>
          15 22 2 3 2.</_></rects>
      <tilted>0</tilted></_>
    <_>
      <rects>
        <_>
          16 5 1 6 -1.</_>
        <_>
          16 7 1 2 3.</_></rects>
      <tilted>0</tilted></_>
    <_>
      <rects>
        <_>
          17 2 3 6 -1.</_>
        <_>
          18 2 1 6 3.</_></rects>
      <tilted>0</tilted></_>
    <_>
      <rects>
        <_>
          17 3 3 4 -1.</_>
        <_>
          18 3 1 4 3.</_></rects>
      <tilted>0</tilted></_>
    <_>
      <rects>
        <_>
          17 5 3 7 -1.</_>
        <_>
          18 5 1 7 3.</_></rects>
      <tilted>0</tilted></_>
    <_>
      <rects>
        <_>
          17 6 2 4 -1.</_>
        <_>
          17 6 1 2 2.</_>
        <_>
          18 8 1 2 2.</_></rects>
      <tilted>0</tilted></_>
    <_>
      <rects>
        <_>
          18 0 1 12 -1.</_>
        <_>
          18 4 1 4 3.</_></rects>
      <tilted>0</tilted></_>
    <_>
      <rects>
        <_>
          18 2 1 6 -1.</_>
        <_>
          18 5 1 3 2.</_></rects>
      <tilted>0</tilted></_>
    <_>
      <rects>
        <_>
          19 1 2 20 -1.</_>
        <_>
          19 11 2 10 2.</_></rects>
      <tilted>0</tilted></_>
    <_>
      <rects>
        <_>
          19 4 1 6 -1.</_>
        <_>
          19 7 1 3 2.</_></rects>
      <tilted>0</tilted></_>
    <_>
      <rects>
        <_>
          20 23 2 2 -1.</_>
        <_>
          20 24 2 1 2.</_></rects>
      <tilted>0</tilted></_>
    <_>
      <rects>
        <_>
          21 5 3 3 -1.</_>
        <_>
          21 6 3 1 3.</_></rects>
      <tilted>0</tilted></_>
    <_>
      <rects>
        <_>
          21 14 3 3 -1.</_>
        <_>
          21 15 3 1 3.</_></rects>
      <tilted>0</tilted></_>
    <_>
      <rects>
        <_>
          21 19 3 2 -1.</_>
        <_>
          21 20 3 1 2.</_></rects>
      <tilted>0</tilted></_>
    <_>
      <rects>
        <_>
          21 19 3 3 -1.</_>
        <_>
          21 20 3 1 3.</_></rects>
      <tilted>0</tilted></_>
    <_>
      <rects>
        <_>
          21 22 1 2 -1.</_>
        <_>
          21 23 1 1 2.</_></rects>
      <tilted>0</tilted></_>
    <_>
      <rects>
        <_>
          22 6 2 1 -1.</_>
        <_>
          23 6 1 1 2.</_></rects>
      <tilted>0</tilted></_>
    <_>
      <rects>
        <_>
          22 6 2 2 -1.</_>
        <_>
          23 6 1 2 2.</_></rects>
      <tilted>0</tilted></_>
    <_>
      <rects>
        <_>
          22 14 2 3 -1.</_>
        <_>
          22 15 2 1 3.</_></rects>
      <tilted>0</tilted></_>
    <_>
      <rects>
        <_>
          22 15 2 9 -1.</_>
        <_>
          23 15 1 9 2.</_></rects>
      <tilted>0</tilted></_>
    <_>
      <rects>
        <_>
          22 19 1 6 -1.</_>
        <_>
          22 22 1 3 2.</_></rects>
      <tilted>0</tilted></_>
    <_>
      <rects>
        <_>
          23 6 1 20 -1.</_>
        <_>
          23 16 1 10 2.</_></rects>
      <tilted>0</tilted></_></features></cascade>
</opencv_storage>
