<?xml version="1.0"?>
<opencv_storage>
<stage6>
  <maxWeakCount>9</maxWeakCount>
  <stageThreshold>-1.9332516193389893e+00</stageThreshold>
  <weakClassifiers>
    <_>
      <internalNodes>
        0 -1 1140 -4.0952362120151520e-02</internalNodes>
      <leafValues>
        -2.8571429848670959e-01 -8.4031075239181519e-01</leafValues></_>
    <_>
      <internalNodes>
        0 -1 93969 -8.4198452532291412e-03</internalNodes>
      <leafValues>
        3.3706933259963989e-01 -4.6823114156723022e-01</leafValues></_>
    <_>
      <internalNodes>
        0 -1 13820 6.2752218218520284e-04</internalNodes>
      <leafValues>
        1.5735973417758942e-01 -8.5291111469268799e-01</leafValues></_>
    <_>
      <internalNodes>
        0 -1 12614 -2.3472760803997517e-03</internalNodes>
      <leafValues>
        2.2089460492134094e-01 -6.9400101900100708e-01</leafValues></_>
    <_>
      <internalNodes>
        0 -1 23209 3.3063518349081278e-03</internalNodes>
      <leafValues>
        -5.5180376768112183e-01 2.2612996399402618e-01</leafValues></_>
    <_>
      <internalNodes>
        0 -1 16283 -1.1132027208805084e-01</internalNodes>
      <leafValues>
        -9.2253392934799194e-01 1.6843122243881226e-01</leafValues></_>
    <_>
      <internalNodes>
        0 -1 174749 -2.3940710889291950e-05</internalNodes>
      <leafValues>
        1.4976891875267029e-01 -6.5113657712936401e-01</leafValues></_>
    <_>
      <internalNodes>
        0 -1 188824 -8.5789232980459929e-04</internalNodes>
      <leafValues>
        -8.4318602085113525e-01 1.3353790342807770e-01</leafValues></_>
    <_>
      <internalNodes>
        0 -1 103698 -2.7175847208127379e-05</internalNodes>
      <leafValues>
        1.8806678056716919e-01 -6.1405825614929199e-01</leafValues></_></weakClassifiers></stage6>
</opencv_storage>
