<?xml version="1.0"?>
<opencv_storage>
<stage7>
  <maxWeakCount>10</maxWeakCount>
  <stageThreshold>-2.1549963951110840e+00</stageThreshold>
  <weakClassifiers>
    <_>
      <internalNodes>
        0 -1 160525 2.3964639753103256e-02</internalNodes>
      <leafValues>
        -8.1104654073715210e-01 -9.3799680471420288e-02</leafValues></_>
    <_>
      <internalNodes>
        0 -1 58435 -5.9153209440410137e-04</internalNodes>
      <leafValues>
        -3.1230906024575233e-02 -7.4020349979400635e-01</leafValues></_>
    <_>
      <internalNodes>
        0 -1 2335 2.5899546017171815e-05</internalNodes>
      <leafValues>
        -6.9635802507400513e-01 1.4199174940586090e-01</leafValues></_>
    <_>
      <internalNodes>
        0 -1 151543 -1.3598473742604256e-04</internalNodes>
      <leafValues>
        1.9967396557331085e-01 -6.4466172456741333e-01</leafValues></_>
    <_>
      <internalNodes>
        0 -1 170561 -3.5251810913905501e-05</internalNodes>
      <leafValues>
        2.5087073445320129e-01 -5.2186816930770874e-01</leafValues></_>
    <_>
      <internalNodes>
        0 -1 188823 6.2681705458089709e-05</internalNodes>
      <leafValues>
        1.9450496137142181e-01 -6.2265956401824951e-01</leafValues></_>
    <_>
      <internalNodes>
        0 -1 4480 9.7532651852816343e-04</internalNodes>
      <leafValues>
        2.5420123338699341e-01 -4.9761018157005310e-01</leafValues></_>
    <_>
      <internalNodes>
        0 -1 113645 -3.5900652408599854e-02</internalNodes>
      <leafValues>
        -8.7990689277648926e-01 1.2859354913234711e-01</leafValues></_>
    <_>
      <internalNodes>
        0 -1 164033 4.5070459600538015e-04</internalNodes>
      <leafValues>
        1.3639079034328461e-01 -7.5972914695739746e-01</leafValues></_>
    <_>
      <internalNodes>
        0 -1 104658 -8.1699630245566368e-03</internalNodes>
      <leafValues>
        5.3719645738601685e-01 -2.5006005167961121e-01</leafValues></_></weakClassifiers></stage7>
</opencv_storage>
